<?xml version="1.0"?>
<opencv_storage>
<cascade>
  <stageType>BOOST</stageType>
  <featureType>HAAR</featureType>
  <height>24</height>
  <width>24</width>
  <stageParams>
    <boostType>GAB</boostType>
    <minHitRate>9.9500000476837158e-01</minHitRate>
    <maxFalseAlarm>5.0000000000000000e-01</maxFalseAlarm>
    <weightTrimRate>9.4999998807907104e-01</weightTrimRate>
    <maxDepth>1</maxDepth>
    <maxWeakCount>100</maxWeakCount></stageParams>
  <featureParams>
    <maxCatCount>0</maxCatCount>
    <featSize>1</featSize>
    <mode>BASIC</mode></featureParams>
  <stageNum>8</stageNum>
  <stages>
    <!-- stage 0 -->
    <_>
      <maxWeakCount>2</maxWeakCount>
      <stageThreshold>-2.8219556435942650e-02</stageThreshold>
      <weakClassifiers>
        <_>
          <internalNodes>
            0 -1 1 -7.1062237024307251e-02</internalNodes>
          <leafValues>
            9.4698792695999146e-01 -9.7208374738693237e-01</leafValues></_>
        <_>
          <internalNodes>
            0 -1 3 -6.8522438406944275e-02</internalNodes>
          <leafValues>
            9.4386416673660278e-01 -9.4930505752563477e-01</leafValues></_></weakClassifiers></_>
    <!-- stage 1 -->
    <_>
      <maxWeakCount>2</maxWeakCount>
      <stageThreshold>-2.3057204484939575e-01</stageThreshold>
      <weakClassifiers>
        <_>
          <internalNodes>
            0 -1 5 -2.6890552043914795e-01</internalNodes>
          <leafValues>
            8.4753364324569702e-01 -9.8765432834625244e-01</leafValues></_>
        <_>
          <internalNodes>
            0 -1 10 2.6674773544073105e-02</internalNodes>
          <leafValues>
            -9.7541987895965576e-01 7.5708228349685669e-01</leafValues></_></weakClassifiers></_>
    <!-- stage 2 -->
    <_>
      <maxWeakCount>2</maxWeakCount>
      <stageThreshold>-2.0059446990489960e-01</stageThreshold>
      <weakClassifiers>
        <_>
          <internalNodes>
            0 -1 14 -2.7133425697684288e-02</internalNodes>
          <leafValues>
            8.0094784498214722e-01 -9.2369478940963745e-01</leafValues></_>
        <_>
          <internalNodes>
            0 -1 12 -3.1061381101608276e-02</internalNodes>
          <leafValues>
            7.2310030460357666e-01 -9.2392295598983765e-01</leafValues></_></weakClassifiers></_>
    <!-- stage 3 -->
    <_>
      <maxWeakCount>3</maxWeakCount>
      <stageThreshold>-1.0737806558609009e+00</stageThreshold>
      <weakClassifiers>
        <_>
          <internalNodes>
            0 -1 4 -1.0040736198425293e-01</internalNodes>
          <leafValues>
            6.5346533060073853e-01 -8.3431953191757202e-01</leafValues></_>
        <_>
          <internalNodes>
            0 -1 7 -3.9246574044227600e-02</internalNodes>
          <leafValues>
            6.8631780147552490e-01 -7.9184383153915405e-01</leafValues></_>
        <_>
          <internalNodes>
            0 -1 15 2.7433291077613831e-02</internalNodes>
          <leafValues>
            -9.3540221452713013e-01 6.0917747020721436e-01</leafValues></_></weakClassifiers></_>
    <!-- stage 4 -->
    <_>
      <maxWeakCount>2</maxWeakCount>
      <stageThreshold>-1.8002249300479889e-01</stageThreshold>
      <weakClassifiers>
        <_>
          <internalNodes>
            0 -1 9 -3.9806678891181946e-02</internalNodes>
          <leafValues>
            6.5071767568588257e-01 -8.5399997234344482e-01</leafValues></_>
        <_>
          <internalNodes>
            0 -1 0 -5.1380485296249390e-01</internalNodes>
          <leafValues>
            6.9658225774765015e-01 -8.3074021339416504e-01</leafValues></_></weakClassifiers></_>
    <!-- stage 5 -->
    <_>
      <maxWeakCount>3</maxWeakCount>
      <stageThreshold>-1.4288657903671265e+00</stageThreshold>
      <weakClassifiers>
        <_>
          <internalNodes>
            0 -1 8 -1.0477535426616669e-02</internalNodes>
          <leafValues>
            4.4465291500091553e-01 -9.2542374134063721e-01</leafValues></_>
        <_>
          <internalNodes>
            0 -1 16 -7.2800442576408386e-02</internalNodes>
          <leafValues>
            3.7613320350646973e-01 -9.4758093357086182e-01</leafValues></_>
        <_>
          <internalNodes>
            0 -1 6 -1.3916859030723572e-01</internalNodes>
          <leafValues>
            4.4413888454437256e-01 -9.8750412464141846e-01</leafValues></_></weakClassifiers></_>
    <!-- stage 6 -->
    <_>
      <maxWeakCount>2</maxWeakCount>
      <stageThreshold>-2.5733029842376709e-01</stageThreshold>
      <weakClassifiers>
        <_>
          <internalNodes>
            0 -1 16 -7.2901122272014618e-02</internalNodes>
          <leafValues>
            5.6923079490661621e-01 -9.7772830724716187e-01</leafValues></_>
        <_>
          <internalNodes>
            0 -1 2 2.8687890619039536e-02</internalNodes>
          <leafValues>
            -8.2656109333038330e-01 7.4084079265594482e-01</leafValues></_></weakClassifiers></_>
    <!-- stage 7 -->
    <_>
      <maxWeakCount>3</maxWeakCount>
      <stageThreshold>-1.1980619430541992e+00</stageThreshold>
      <weakClassifiers>
        <_>
          <internalNodes>
            0 -1 17 3.0577735975384712e-02</internalNodes>
          <leafValues>
            -8.0856883525848389e-01 9.5015573501586914e-01</leafValues></_>
        <_>
          <internalNodes>
            0 -1 11 2.7198443422093987e-04</internalNodes>
          <leafValues>
            6.7028057575225830e-01 -9.3296933174133301e-01</leafValues></_>
        <_>
          <internalNodes>
            0 -1 13 -7.6039409032091498e-04</internalNodes>
          <leafValues>
            5.4347622394561768e-01 -9.5671737194061279e-01</leafValues></_></weakClassifiers></_></stages>
  <features>
    <_>
      <rects>
        <_>
          0 2 24 19 -1.</_>
        <_>
          8 2 8 19 3.</_></rects>
      <tilted>0</tilted></_>
    <_>
      <rects>
        <_>
          0 4 24 2 -1.</_>
        <_>
          8 4 8 2 3.</_></rects>
      <tilted>0</tilted></_>
    <_>
      <rects>
        <_>
          0 16 8 8 -1.</_>
        <_>
          0 16 4 4 2.</_>
        <_>
          4 20 4 4 2.</_></rects>
      <tilted>0</tilted></_>
    <_>
      <rects>
        <_>
          0 18 24 2 -1.</_>
        <_>
          8 18 8 2 3.</_></rects>
      <tilted>0</tilted></_>
    <_>
      <rects>
        <_>
          1 3 8 16 -1.</_>
        <_>
          5 3 4 16 2.</_></rects>
      <tilted>0</tilted></_>
    <_>
      <rects>
        <_>
          2 2 19 21 -1.</_>
        <_>
          2 9 19 7 3.</_></rects>
      <tilted>0</tilted></_>
    <_>
      <rects>
        <_>
          2 3 9 21 -1.</_>
        <_>
          2 10 9 7 3.</_></rects>
      <tilted>0</tilted></_>
    <_>
      <rects>
        <_>
          3 2 16 4 -1.</_>
        <_>
          3 4 16 2 2.</_></rects>
      <tilted>0</tilted></_>
    <_>
      <rects>
        <_>
          3 14 6 6 -1.</_>
        <_>
          3 14 3 3 2.</_>
        <_>
          6 17 3 3 2.</_></rects>
      <tilted>0</tilted></_>
    <_>
      <rects>
        <_>
          4 2 16 4 -1.</_>
        <_>
          4 4 16 2 2.</_></rects>
      <tilted>0</tilted></_>
    <_>
      <rects>
        <_>
          4 15 3 8 -1.</_>
        <_>
          4 19 3 4 2.</_></rects>
      <tilted>0</tilted></_>
    <_>
      <rects>
        <_>
          11 7 6 3 -1.</_>
        <_>
          14 7 3 3 2.</_></rects>
      <tilted>0</tilted></_>
    <_>
      <rects>
        <_>
          13 6 9 14 -1.</_>
        <_>
          16 6 3 14 3.</_></rects>
      <tilted>0</tilted></_>
    <_>
      <rects>
        <_>
          13 17 7 3 -1.</_>
        <_>
          13 18 7 1 3.</_></rects>
      <tilted>0</tilted></_>
    <_>
      <rects>
        <_>
          15 2 5 6 -1.</_>
        <_>
          15 5 5 3 2.</_></rects>
      <tilted>0</tilted></_>
    <_>
      <rects>
        <_>
          15 16 6 6 -1.</_>
        <_>
          15 19 6 3 2.</_></rects>
      <tilted>0</tilted></_>
    <_>
      <rects>
        <_>
          18 0 2 24 -1.</_>
        <_>
          18 8 2 8 3.</_></rects>
      <tilted>0</tilted></_>
    <_>
      <rects>
        <_>
          19 7 4 11 -1.</_>
        <_>
          21 7 2 11 2.</_></rects>
      <tilted>0</tilted></_></features></cascade>
</opencv_storage>
